Language model created by QuickLM on Wed Apr 11 10:33:39 EDT 2018
Copyright (c) 1996-2010 Carnegie Mellon University and Alexander I. Rudnicky

The model is in standard ARPA format, designed by Doug Paul while he was at MITRE.

The code that was used to produce this language model is available in Open Source.
Please visit http://www.speech.cs.cmu.edu/tools/ for more information

The (fixed) discount mass is 0.5. The backoffs are computed using the ratio method.
This model based on a corpus of 13 sentences and 19 words

\data\
ngram 1=19
ngram 2=31
ngram 3=26

\1-grams:
-0.9724 </s> -0.3010
-0.9724 <s> -0.2521
-1.7853 BACKWARD -0.2400
-1.7853 FORWARD -0.2400
-2.0864 FOUR -0.2521
-1.4843 GO -0.2866
-2.0864 LEFT -0.2521
-1.7853 METER -0.2521
-1.4843 MOVE -0.2866
-2.0864 NO -0.2521
-1.6092 ONE -0.2441
-1.4843 POSITION -0.2791
-2.0864 RIGHT -0.2521
-2.0864 STOP -0.2521
-2.0864 THREE -0.2521
-1.4843 TO -0.2866
-1.7853 TURN -0.2939
-2.0864 TWO -0.2521
-2.0864 YES -0.2521

\2-grams:
-0.8129 <s> GO 0.0000
-0.8129 <s> MOVE 0.0000
-1.4150 <s> NO 0.0000
-1.4150 <s> STOP 0.0000
-1.1139 <s> TURN 0.0000
-1.4150 <s> YES 0.0000
-0.6021 BACKWARD </s> -0.3010
-0.6021 BACKWARD ONE -0.1249
-0.6021 FORWARD </s> -0.3010
-0.6021 FORWARD ONE -0.1249
-0.3010 FOUR </s> -0.3010
-0.3010 GO TO 0.0000
-0.3010 LEFT </s> -0.3010
-0.3010 METER </s> -0.3010
-0.6021 MOVE BACKWARD 0.0000
-0.6021 MOVE FORWARD 0.0000
-0.3010 NO </s> -0.3010
-0.7782 ONE </s> -0.3010
-0.4771 ONE METER 0.0000
-0.9031 POSITION FOUR 0.0000
-0.9031 POSITION ONE -0.2218
-0.9031 POSITION THREE 0.0000
-0.9031 POSITION TWO 0.0000
-0.3010 RIGHT </s> -0.3010
-0.3010 STOP </s> -0.3010
-0.3010 THREE </s> -0.3010
-0.3010 TO POSITION 0.0000
-0.6021 TURN LEFT 0.0000
-0.6021 TURN RIGHT 0.0000
-0.3010 TWO </s> -0.3010
-0.3010 YES </s> -0.3010

\3-grams:
-0.3010 <s> GO TO
-0.6021 <s> MOVE BACKWARD
-0.6021 <s> MOVE FORWARD
-0.3010 <s> NO </s>
-0.3010 <s> STOP </s>
-0.6021 <s> TURN LEFT
-0.6021 <s> TURN RIGHT
-0.3010 <s> YES </s>
-0.3010 BACKWARD ONE METER
-0.3010 FORWARD ONE METER
-0.3010 GO TO POSITION
-0.6021 MOVE BACKWARD </s>
-0.6021 MOVE BACKWARD ONE
-0.6021 MOVE FORWARD </s>
-0.6021 MOVE FORWARD ONE
-0.3010 ONE METER </s>
-0.3010 POSITION FOUR </s>
-0.3010 POSITION ONE </s>
-0.3010 POSITION THREE </s>
-0.3010 POSITION TWO </s>
-0.9031 TO POSITION FOUR
-0.9031 TO POSITION ONE
-0.9031 TO POSITION THREE
-0.9031 TO POSITION TWO
-0.3010 TURN LEFT </s>
-0.3010 TURN RIGHT </s>

\end\
